63
7
1.0

-2.2330035090459415 0.7344561847595601 -2.9614274121411803 1.0730531447340173 0.5781840074513829 -0.789546823550201 0.628128050041536 
-0.5409516223664141 1.0351388876047145 -1.1341914048175878 1.57167649256313 1.064714064483331 -0.3781849090459619 -0.31330570143073944 
-0.3892703418839529 0.18228429375049116 0.015346667299682037 -0.851494900593206 -0.35264026425816375 -1.9187370030863484 -1.1374741741765666 
0.5984797205140071 -0.9404601112628489 0.9833793098099238 -0.06835144316459318 0.8402855347345168 -0.678364346410328 -2.2336725095721377 
-1.0193557993605467 -0.4028981761324406 1.4392058830387937 0.30317354437346467 1.5904400335542963 0.5987710079539934 -1.0561425088900325 
-3.0140507918200257 1.9399843703820476 -0.9761996392695649 -2.9114689480661715 0.1915519989783132 0.335233218840312 0.8946928835229508 
-1.2153348968843036 -1.175677335947241 3.0722779154437942 -0.939369760287422 2.437314834106709 1.386270587939091 0.8668340839280573 
0.3916511495694972 1.3982632090978215 -1.144055349916113 1.1757970635264106 0.7627241771875677 -0.5126221993175344 0.5490617765168824 
-0.6983820307988339 -0.3444190481812235 3.651341480299796 0.10821330638108817 -0.3893145002427043 0.17852026846557573 0.6980099905051236 
1.4732306969909161 0.9215317154121443 1.309263756795986 1.3284751512187485 0.8452616104325853 0.00472591860908117 0.24177091024403946 
3.092510993511687 0.10969811245802907 0.2788572354538137 0.9380228214670645 -0.10654538065276775 -0.7921491675753103 -0.04592385440143687 
-1.0899810297303594 1.1537229048208095 0.7364108142178192 1.9598000382113592 0.3423453731369501 0.7171072979091465 2.1193602430795333 
0.3766023038129589 -1.1051679653711095 0.6602042525832871 2.5771953959467213 -0.09856796642936538 1.8978694357260468 0.4889687499266871 
0.08291268253969875 2.7787483437255087 2.847183326869757 -2.104920718432317 1.1797450933049898 -0.9996877572157418 -1.2077605358683976 
0.40609514006921055 0.438577274587412 1.7286094233549532 0.9167104651398978 -0.01897640312586657 -0.6200880058377085 0.4988870110788758 
-1.4174097597180262 1.0471666079589963 0.8810761564873704 1.0432617323194766 0.6084629692636594 0.9739595050612111 0.9832893816557999 
1.469696863373498 0.25640668746674844 1.293555204641928 1.9561006452085228 -0.009117982528753288 0.5048918835590762 0.3819779690702615 
1.3518791793488374 0.813270273746051 -0.994334471189525 0.26677291543881343 0.02205853227656185 -0.21592422231085917 1.5871110076659716 
0.8680014323906697 -0.4871092641589999 1.1334072452029194 1.5266440764474283 0.29158845329335004 0.9402082642930558 -0.6707407441219699 
-0.1860835561301839 1.0674089830873426 0.513632853274183 0.8226728651501121 0.8407334120062979 1.630709560947329 0.08900046120381294 
0.07212233459876671 2.239448505096971 0.285214632901607 1.7155620864194505 -0.8825624712866922 -0.7136695401012991 -0.12668828014604494 
0.18396099285033563 -0.45085446255702366 1.3240929201313942 0.23255808547623524 0.02109812350993101 -0.034302752708028406 0.034773277515749657 
-0.7172451996687916 1.3611514050285387 0.7674628216024799 1.1257143553122362 0.9645665462804153 0.8940410445535674 0.2984126751296994 
0.6445010724344145 1.1788268278917264 -0.07125823178911417 -0.7147046865051023 -1.007128114448451 -0.27139190114111833 0.6634754489679497 
0.7293206064219051 2.2281053810687363 1.3838983853392728 -0.987721139717942 2.0445968641891774 0.0593832382131127 -0.42380510233802915 
2.692209140288779 0.5311127841129912 0.05617779851415494 -0.38303675288099337 0.4130202904055942 -0.5371886052124173 -1.5545144393056765 
-0.28327739987602873 2.365934085442502 0.5194599758455518 -0.6333767518788231 -0.16399444085201886 1.8505225218124113 0.771953190743836 
0.08459118182743497 1.0417892792865284 -1.022595621465457 3.441639561392434 0.04611336920628473 -0.1966023788536445 -0.56348223940038 
-0.33386268463789226 -0.3756424074427265 1.5153282495806748 0.44700985999935294 -0.18670403105194477 -0.05071170873298281 0.4075338790350237 
-2.1637973361381966 0.4167773317959109 -1.7657255268917549 0.09688033640287741 -0.2506094202749982 -0.05331108860301681 0.17379160973966934 
0.7601551508514515 2.20938236858777 -0.02327790531619578 -1.7016363259707905 1.35887152539871 -1.7748546234283675 -0.11542400210454362 
0.21176055581267095 2.1374177793354643 0.5165651969146567 -0.636939436611295 3.111916139293184 -0.6950473779835578 -0.46504470253915264 
1.719218127581376 1.6089145481038483 -0.5671322955124181 -0.17401919310173475 1.5447012705021308 -1.5368249898146273 -2.9422442432783464 
-0.6161392241810328 2.153026203228421 -0.8712315346675281 -0.3150822265014792 -1.1718612365243142 0.06729081114841318 -0.4652640573366599 
0.5431024965185594 0.021008356913392978 -0.22627045714823846 3.4834179416114464 0.43707889661590904 0.062077924879602786 0.7686246395890628 
-0.45129991724251106 0.37844486611298356 1.6730801657703582 0.3125141105814331 -0.016680074209864948 -0.8521414144774292 0.638221132530692 
1.3565445739190567 -0.25150009269847495 -0.8293670065574004 0.12933402827057328 -0.06843869106786604 -0.07021675980973685 -0.32689898974383436 
0.561583989043394 -0.3586078900772207 -0.224640497529628 0.17181788182799984 -0.01423685690423393 -0.2792324894037239 0.9170624747488698 
1.0513734966029042 -0.3317729105462691 0.09605853146480836 -0.014415265671891442 0.446507261476921 -0.9701982527971706 0.4017531286612368 
1.5491847272053345 0.014467071173953294 0.7050801046785509 0.47963233990658605 0.029823563222175387 -0.21329076465800956 -0.3429709062550297 
2.4009672138533653 -0.24539689967709022 -0.3555045595293096 -0.22770533560768458 -0.3333909430069484 0.2585165776495816 -0.8864529535932681 
0.4726269886942278 1.9011875969148941 -1.0782207029553068 2.1358773141493113 -1.0183026447999595 -0.850075362957855 -0.5512026288807717 
-0.17061551578837097 -1.476967782044805 1.3678335319749784 0.9757298593518102 -1.4203789364649113 -0.8815978509450746 0.7884909896835612 
-0.17608537701128868 1.0695691918458605 -1.9790510266554797 -0.5505768232601194 0.5244407878665256 0.5850082486518307 -0.9129858813326797 
1.5841512153084394 1.3957063316272604 1.0942530891499276 1.5838411820655192 1.469729558680013 0.5682190412994522 0.7526078961807641 
0.9224047249669785 1.2202598027513276 0.2873399243078727 1.3823113319303364 1.3335276667893852 0.956096687887249 1.8222381920532498 
1.0147907981745798 1.2195287811326958 1.9622461434231009 1.7310752350272314 -0.657572207276566 0.8279152426400762 1.7869939454784174 
1.8174328300183324 0.5800492927926888 -0.9824134106037923 -0.26730275536187986 0.8309674727279914 0.813110873943184 -0.3688807363958396 
-0.4815416676882194 1.355858282419839 0.006067904709190497 1.674908631330541 -1.9160932345018522 -0.4497793400976895 -0.050844476735985245 
-0.36597890884276596 -0.05515029365425117 -1.785040836166373 1.6970046321315804 -0.18790812509673904 -0.5996415161416266 0.20356646711113946 
0.4210350604397398 0.1637145138900411 1.6166557728419435 -1.509257283142849 -0.32701474232600436 0.6097208679124826 -0.07111458131110471 
0.8343434598031394 0.6390602220767845 1.4256562992938528 1.2968908577453762 1.1393091095275594 0.9474341125314323 0.35305649833151836 
0.6740321295559615 0.7494905154437804 1.2359010680168705 1.3467661924416678 1.1324785884808528 0.909717467001155 0.2777517608165415 
-0.342036560535558 1.1172271584985456 0.5687081182727138 1.9834586105015855 0.779092884394536 0.3508490945911972 1.2036640025482912 
0.9227749762906239 -0.6162071849684612 -0.7511762651926057 1.3590241697283698 -1.0626949650633464 0.25317212166042846 0.7411234192950211 
-0.013160455077854127 2.3790768517338625 1.5339369194669654 -1.6853294560117427 0.36248144901185153 -0.0207969847046805 -1.933389036264831 
-1.2211563070945595 0.3235612321238086 -3.169623392592821 0.842021351828119 -0.31841475183058343 -1.0686011646956928 -0.6797361684248144 
0.6263205971122893 -0.48690909446549635 -2.5196225793220925 0.5188111249495928 0.39158414024688915 -1.008361406328692 -1.3974216529287362 
-1.0867817897785974 0.12585067092882973 -0.19278604314895587 -1.6386038176745406 -0.034453087275255534 -0.8132101648267653 -1.7569855745890908 
-0.9144102205259896 -0.03354317085750147 0.31198339734658853 -0.5231425734410802 2.497745138873635 0.7782050241372607 -1.7146879780422914 
-0.14422721291615725 -0.004541040967837362 -0.8495588157514296 -1.6706053007860693 1.7965980156336583 -0.062277385429333754 -2.4715832274322183 
-0.014880381083423266 0.948619225400888 -0.9820961791305531 -2.4324754829666766 -0.5520515215530903 -1.4461511085615784 -0.22898609350537796 
0.9890995712855963 -0.5737724650711773 0.6357996834110813 -0.39798898439939623 1.5452055682895036 -0.2723697319439038 -0.2494593174671763 

-0.6735039474781415 -1.2117677435919765 -1.2205153497579369 -1.4916544334106896 -1.4756109222733547 -0.5050022878636227 -0.11801106901951963 