63
7
1.0

-1.7912788890260272 0.8160936204344529 -1.3860544625465685 0.19610752708206913 -0.28572836035438 -0.2698073730367443 1.2047715553053662 
-1.2343650829951989 1.414808576729299 -0.5271353504136904 -0.14268947631120665 1.0259614171660765 -0.07082475431420843 0.6546462263966708 
0.23004727248093748 -1.3511418949438168 0.11393572416748476 -1.1444344323996114 0.10002570047089909 -1.969660876325178 -0.27150643783445005 
0.6178440447093042 -0.8457060522836383 0.031843675561274765 -1.3065170503467431 2.1568829228783244 -0.5507324460967815 -2.9739283368890983 
-1.2264408115581713 0.18594926647959498 1.4884632399411364 0.43560579467672444 2.1360571511364546 -0.46919801158409324 -1.2431045634813362 
-3.0428518827289337 1.5703503475393057 -0.10296254684502304 -1.3146090990053925 -0.5007335310626757 1.2864726907947674 1.4857845568341708 
-0.6269942567228723 -0.20990336308328517 2.6005736045953682 -0.4279889249933866 4.040989153521463 1.836531657810312 1.9259210854724984 
0.01946378731092091 0.886080952155772 -0.6854983993268389 -0.06694608042133793 0.6398212183382017 0.26979047232586917 -0.030627572752142784 
-0.7714729704932626 -0.04496529198517196 2.9759094942724778 1.4084845452069583 1.0977295428406055 0.4388094699063405 2.4778869650953412 
1.4836539180303394 1.12067998824058 1.1732919942335371 1.1912729636885886 2.3088895501265165 0.894894983613584 1.3006724467578124 
2.9690153812474804 -0.11514844962062076 0.6776188872545753 -0.18721249191895772 1.029432066188659 0.45695938619559806 -0.9118805779204409 
-1.1729166176286687 0.769840540100077 0.5792797949833353 1.1798938573642723 -0.27867785205193174 1.0425652751635979 2.456644499425144 
0.316083267922899 -1.4944686193306227 0.8959630500774703 1.9514254077918407 0.285059460441631 1.1758235134440795 2.3024398241419726 
0.2005844361801462 2.0471746894912757 1.7345036252283206 -0.6093458573636006 0.8014194920732738 0.19233532873584758 -1.4230370665945953 
0.19331352804766233 0.399051106807093 1.5469439285241808 -0.11449444750503063 0.8055531260041906 -1.1184577581537738 0.355908444129555 
-0.6568139959025685 1.3770400929515019 0.4249037874171382 0.6874740142857139 0.5181294452071301 1.1638731105654068 1.744971950307367 
1.0689444138221433 0.5508573457188183 1.355342819769095 0.5176914213655539 1.7786430584066157 0.7658025270168912 0.5905615311373498 
0.5583430036216397 -0.07680065547854209 -0.30786228731194587 0.013755911394057296 -1.15012194662297 0.3080532064465956 0.4530410344425686 
0.6642913410798024 0.7584307104474333 1.6362354752856432 0.9665003980866735 2.122824959050549 1.4945243937653987 1.9701490292517385 
-0.276309884954377 1.2897946633308897 0.25220693744979605 0.8824175556709719 0.5618471811845418 1.7874678790619272 1.1493054467153596 
0.2096164322405808 0.9831266824926064 0.036087428531800914 0.8710971676257544 -2.348910742355928 -0.640559605212323 -0.2695506544433639 
-0.3746370663619534 -0.3459258105560392 1.623630734395201 0.19427564962290567 1.091078092508606 -1.4251172763731175 -0.11540140918363306 
-1.24105707591737 0.9141800296193867 0.6520771813246009 0.7210372736343751 1.0920333743343085 0.9572830427858864 1.849302154118289 
0.7534236812189852 0.8925780400923309 -0.7154369661620681 0.030134759933731603 -0.7663772657497259 0.032304241031707925 -0.09794237450684506 
0.8473801014215996 1.5052707704165456 1.5268845023869244 -0.2769398416851123 3.2022192707824226 0.6033678404777983 0.5854439657724024 
3.1398106783037685 1.4892704595571837 0.049432694784596665 -0.23914634183067207 0.8631431328889057 0.40924640466382334 -0.7763792950146409 
-0.2916695645690468 1.5171198550452945 0.7928784685871468 0.8133955441513414 -0.4348396100823231 1.8736571339830153 0.5528212031983788 
-0.0823076031380705 -0.44597840526180255 -0.7280197571843114 0.883888320428567 -1.3187573235101662 -0.3647186125035774 -0.23070409827566274 
0.34259501891928923 -0.018448384136419138 1.768409847784767 0.18993618519184552 1.2087239273683763 -1.427078355613065 -0.07619421196775933 
-2.187815268040766 1.1729924336403728 -1.6995755602820648 -0.37155876767552964 0.2998694146488916 -0.42717935210923497 0.8877779471813225 
0.674525473618335 0.596993730316631 -0.912729177534181 -2.277240707773081 0.23910839440020348 -1.1422552892585678 -0.6208938504173046 
0.16980673691111625 1.578905137338006 0.6490311487571897 -0.767126426800319 2.518780754015731 -0.38246899733584794 -1.2748758804465523 
1.7747671866860801 1.4297758637338 -0.5090146688551207 -1.0651423985826414 1.4024677553861347 -0.5587319149388281 -2.440837396604032 
-0.7928838097945441 2.3041361025086244 -0.26782090357238664 -0.11072857278674436 -1.5009217566096735 0.6701744467207763 0.023530330977247327 
1.4230875044402276 0.37041833941784563 0.9096802921188134 2.2944848300840777 1.0739831098247266 1.2499313081833074 1.345472782692445 
-0.36955993402976617 -0.348983727082149 1.3911278845087227 -0.13745341760514412 0.6313977073418029 -0.5092894834164267 0.26840188289623623 
0.9367984402662091 -0.3361933541502845 -0.09683346382014957 0.14610340829003615 -0.22480660819600584 0.08823276092633059 -0.07868515467812975 
0.6461508719024702 0.06244858218051408 -0.6541240407056654 -0.36819124314599283 0.14721962234055264 -0.2392788924065441 -0.268985645610583 
1.012177965743482 -0.35483909355225407 0.7138202606187058 -0.6479606331891143 0.9473919250884881 0.39154392159448315 0.6777598267149125 
1.8551129266604038 -0.22252863143317958 0.8315479287291114 -0.22007640733987088 1.331558804829787 -0.1766539211195226 -0.20321775322503166 
1.5314889674736394 -0.10547428458281138 -0.22792506242420585 -0.07441462938765042 0.3672468506734503 0.5740341345512479 -0.7784172633886687 
0.15247383683376803 0.9814809861677198 -0.9376113880926409 1.0342729758635403 -1.7061529158624484 0.07479415300288972 0.3328551466599339 
-0.08899411865598172 -0.14047924057157113 1.3427737255989305 -0.37547770152787296 0.910888146209525 -1.2005708085848577 -0.099848687166467 
0.4773199896037035 0.0537260985978778 -1.8151212348015449 0.2536150131924049 0.42087176937282855 0.5339294354510586 -0.08536964521930379 
1.811469668615631 0.8618149923107474 1.0720394225574055 0.6660442699198631 2.335942084232003 0.5859596200302531 -0.13688467939401516 
1.3805031386018074 0.9227649870888613 0.444958461381432 1.085146812869156 1.293761288512609 0.6187242774796203 0.2126833528128318 
0.5227152821472509 0.9570048946089305 1.4714982232063158 0.7715267019840423 0.020180177116967624 0.8162610806075046 1.5969975938819143 
1.9263987628119168 0.28063780444541186 -0.05772656649349828 0.0396900331575889 0.22986301112122542 0.5530192261464257 -0.5086290654976973 
0.04704326270494075 1.4276444431904467 0.18293140447348177 1.2613009113980933 -2.488184506842965 -1.0505501524131085 0.05619817578792907 
-0.09629934680202212 1.056444762871279 -0.6941889396263724 0.38915511954592974 1.231372508857208 -0.2742088235438571 0.34286334395140106 
0.4742259241620468 -1.3283073546460293 0.46519050116678073 0.09630471800458562 -0.6603104552200498 -0.31616422436687497 -0.49156700592462044 
1.3376803962627886 0.8199588769267829 1.4594151056167428 1.4317084564303018 1.8879000999786513 0.9817363367068312 0.759595890809375 
0.7022546604636195 1.2646723122325243 1.3514081483426432 1.2589319091257454 1.9122329122300372 1.231414681632642 0.688416887659961 
-0.022696049031973864 1.4677953476057959 0.24773293522297124 1.2985367749901087 1.4114007216051847 1.013543212342705 1.0801057144599562 
1.4874341621879625 -1.579437887526789 -0.601282015719206 1.444622382788254 -2.4280986906474133 0.3211015355619474 0.6653844382864191 
0.22660291314004166 2.294121217007902 1.0713205439515492 -0.891680447901757 1.4425259176480116 -0.22562555796456318 -0.9425074067759711 
-0.9845224077037116 0.09723711980781669 -2.004037125247754 -0.8114272030368109 -0.5706697336599387 -0.8458549168131806 0.14115969286007457 
0.6115504954675393 -0.07688192537822713 -1.898028375381759 -0.6889212200812468 -0.36968385513213686 -1.4436505693741566 -1.2299276845164826 
-1.401897840514451 -0.5432445371941353 -0.5452066272033573 -0.7288088112626645 -1.0502191460280963 -1.2677740621015154 -0.19447120783464156 
-1.4537084290183275 0.24788179101637153 0.9203772670997881 0.3182151792585435 1.8954457497644879 0.1347832456835758 -1.0370271817750172 
-0.4018371760530395 -0.730794863862195 -0.5545913698826381 -0.8540108770620709 0.500741971653579 -1.4614087124142208 -1.90155706852082 
0.12700354161622707 0.7484538729212125 -0.5375927212826397 -2.3963185169345076 -0.8703205701453605 -1.0415140417353146 -1.006990541529383 
1.1499312953432497 0.13475780999159914 0.36422776003991686 -0.8522784137505712 3.7117167001864386 0.1376229436664227 0.7447036863951698 

-1.051846539147476 -0.9271693572931896 -1.4145456422569658 -1.258760744171898 -2.259647305851875 -1.0038724255563036 -1.03506004368427 