63
7
1.0

-0.8 0.4000000000000001 -0.6000000000000001 0.6000000000000001 5.551115123125783E-17 0.0 0.6000000000000001 
-0.4000000000000001 0.4000000000000001 -0.20000000000000007 0.6000000000000001 0.4000000000000001 0.0 0.2 
0.0 -0.4 0.2 -0.2 0.0 -0.8 -0.20000000000000007 
0.4 -0.4 0.2 -0.2 0.4000000000000001 -0.4 -1.4 
-0.4000000000000001 0.0 0.6000000000000001 0.2 0.8 0.0 -0.6000000000000001 
-1.2 0.8 -0.19999999999999996 -1.0 -0.4 0.4 0.6000000000000001 
-0.4000000000000001 -0.8 1.0 -0.2 1.5999999999999999 0.8 0.6000000000000001 
0.0 0.4000000000000001 -0.2 0.6000000000000001 0.4000000000000001 0.0 0.2 
-0.4000000000000001 0.0 1.0 0.2 0.4000000000000001 0.0 0.6000000000000001 
0.4 0.4 0.6000000000000001 0.6000000000000001 0.8 0.4 0.2 
1.2 0.0 0.2 0.2 0.4 0.0 -0.6000000000000001 
-0.4 0.4 0.2 0.6000000000000001 0.0 0.4 1.0 
0.0 -0.4000000000000001 0.2 1.0 0.0 0.4000000000000001 0.6000000000000001 
0.0 0.8 0.6000000000000001 -1.0 0.4000000000000001 0.0 -0.6000000000000001 
0.0 0.0 0.6000000000000001 0.2 0.4000000000000001 -0.4 0.2 
-0.4000000000000001 0.4000000000000001 0.2 0.6000000000000001 0.4000000000000001 0.4 0.6000000000000001 
0.4 0.4 0.6000000000000001 0.6000000000000001 0.8 0.4 0.2 
0.4000000000000001 0.0 -0.2 0.2 -0.4000000000000001 0.0 0.20000000000000007 
0.4 -0.4 0.6000000000000001 0.6000000000000001 0.8 0.4 0.2 
0.0 0.4 0.2 0.2 0.4 0.8 0.2 
0.0 1.2 0.2 0.6000000000000001 -0.8 -0.4 -0.2 
0.0 0.0 0.6000000000000001 0.2 0.4000000000000001 -0.4 0.2 
-0.4000000000000001 0.4000000000000001 0.2 0.6000000000000001 0.4000000000000001 0.4 0.6000000000000001 
0.4000000000000001 0.0 -0.2 -0.2 -0.4 0.0 -0.2 
0.4 0.4000000000000001 0.6000000000000001 -0.2 1.2 0.4 0.2 
1.2 0.0 0.2 -0.2 0.4000000000000001 0.0 -1.0 
0.0 1.2 0.2 -0.2 0.0 0.8 0.2 
0.0 0.4000000000000001 -0.20000000000000007 1.4 -0.4000000000000001 0.0 -0.2 
0.0 0.0 0.6000000000000001 0.2 0.4000000000000001 -0.4 0.2 
-0.8 0.8 -0.6000000000000001 0.2 5.551115123125783E-17 0.0 0.6000000000000001 
0.4 0.8 -0.20000000000000007 -0.6000000000000001 -5.551115123125783E-17 -0.4000000000000001 -0.2 
0.0 1.2 0.2 -0.20000000000000007 1.2 0.0 -0.2 
0.8 5.551115123125783E-17 -0.20000000000000007 -0.20000000000000007 0.4 -0.4000000000000001 -1.4 
-0.4000000000000001 1.2 -0.2 -0.2 -0.8 0.4 -0.2 
0.4 0.4 0.2 1.4 0.4000000000000001 0.4 0.2 
0.0 0.0 0.6000000000000001 0.2 0.4000000000000001 -0.4 0.2 
0.4 0.0 -0.20000000000000007 0.2 0.0 0.0 -0.2 
0.4000000000000001 0.0 -0.2 0.2 0.0 0.0 0.2 
0.4000000000000001 0.0 0.2 -0.20000000000000007 0.4 0.0 0.6000000000000001 
0.8 0.0 0.2 0.2 0.4 0.0 -0.2 
0.8 0.0 -0.2 -0.2 -5.551115123125783E-17 0.4 -0.6000000000000001 
0.0 1.2 -0.20000000000000007 1.0 -0.8 0.0 -0.2 
0.0 0.0 0.6000000000000001 0.2 0.4000000000000001 -0.4 0.2 
0.0 0.0 -0.6000000000000001 -0.2 -0.4000000000000001 0.4 -0.2 
0.8 0.4 0.6000000000000001 0.6000000000000001 0.8 0.4 -0.2 
0.4000000000000001 0.4 0.2 0.6000000000000001 0.4000000000000001 0.4 0.20000000000000007 
0.4 0.4 0.6000000000000001 0.6000000000000001 0.0 0.4 0.6000000000000001 
0.8 0.0 -0.2 -0.2 -5.551115123125783E-17 0.4 -0.6000000000000001 
0.0 1.2 0.2 0.6000000000000001 -0.8 -0.4 -0.2 
0.0 0.4000000000000001 -0.2 0.6000000000000001 0.4000000000000001 0.0 0.2 
0.0 -0.4000000000000001 0.2 -0.6000000000000001 -0.4000000000000001 0.0 -0.2 
0.4 0.4 0.6000000000000001 0.6000000000000001 0.8 0.4 0.2 
0.4 0.4 0.6000000000000001 0.6000000000000001 0.8 0.4 0.2 
0.0 0.4 0.2 0.6000000000000001 0.4000000000000001 0.4 0.6000000000000001 
0.4 -0.8 -0.20000000000000007 0.6000000000000001 -0.8 0.0 0.2 
0.0 0.8 0.6000000000000001 -0.6000000000000001 0.4000000000000001 0.0 -0.6000000000000001 
-0.4 0.0 -1.0 0.2 -0.4 -0.4000000000000001 0.2 
0.4 0.0 -0.6000000000000001 0.2 0.0 -0.4000000000000001 -0.6000000000000001 
-0.4000000000000001 -0.4 -0.2 -0.6000000000000001 -0.4000000000000001 -0.4 -0.20000000000000007 
-0.4000000000000001 0.0 0.2 -0.2 0.8 0.0 -0.6000000000000001 
0.0 -0.4 -0.2 -0.6000000000000001 0.4000000000000001 -0.4 -1.0 
0.0 0.4000000000000001 -0.2 -1.0 -0.4 -0.4000000000000001 -0.2 
0.4000000000000001 -0.8 0.2 -0.20000000000000007 1.5999999999999999 0.0 0.2 

-0.4 -0.4 -0.6000000000000001 -0.6000000000000001 -0.8 -0.4 -0.2 